{"learner":{"attributes":{"scikit_learn":"{\"_estimator_type\": \"regressor\"}"},"feature_names":[],"feature_types":[],"gradient_booster":{"model":{"cats":{"enc":[],"feature_segments":[],"sorted_idx":[]},"gbtree_model_param":{"num_parallel_tree":"1","num_trees":"50"},"iteration_indptr":[0,1,2,3,4,5,6,7,8,9,10,11,12,13,14,15,16,17,18,19,20,21,22,23,24,25,26,27,28,29,30,31,32,33,34,35,36,37,38,39,40,41,42,43,44,45,46,47,48,49,50],"tree_info":[0,0,0,0,0,0,0,0,0,0,0,0,0,0,0,0,0,0,0,0,0,0,0,0,0,0,0,0,0,0,0,0,0,0,0,0,0,0,0,0,0,0,0,0,0,0,0,0,0,0],"trees":[{"base_weights":[5.1835847E-1,2.675634E0,-4.1794834E0,4.3340135E0,-1.354324E0,-5.536343E-1,-1.5153556E-1,6.5642256E-1,3.859944E-2,-4.420763E-1,1.8006964E-1],"categories":[],"categories_nodes":[],"categories_segments":[],"categories_sizes":[],"default_left":[0,0,0,0,0,0,0,0,0,0,0],"id":0,"left_children":[1,3,5,7,9,-1,-1,-1,-1,-1,-1],"loss_changes":[3.2384964E2,1.5587971E2,2.070723E1,1.3139474E2,7.830327E1,0E0,0E0,0E0,0E0,0E0,0E0],"parents":[2147483647,0,0,1,1,2,2,3,3,4,4],"right_children":[2,4,6,8,10,-1,-1,-1,-1,-1,-1],"split_conditions":[2.134138E-1,1.6169688E-1,4.9309283E-1,2.045582E-1,3.3743855E-1,-5.536343E-1,-1.5153556E-1,6.5642256E-1,3.859944E-2,-4.420763E-1,1.8006964E-1],"split_indices":[74,100,74,87,93,0,0,0,0,0,0],"split_type":[0,0,0,0,0,0,0,0,0,0,0],"sum_hessian":[3E1,2.1E1,9E0,1.5E1,6E0,5E0,4E0,9E0,6E0,3E0,3E0],"tree_param":{"num_deleted":"0","num_feature":"123","num_nodes":"11","size_leaf_vector":"1"}},{"base_weights":[-6.575122E-2,5.97888E-1,-1.3943954E0,-3.5431867E0,4.2954807E0,3.4967303E-2,-5.5860215E-1,2.9609585E-2,6.435893E-1],"categories":[],"categories_nodes":[],"categories_segments":[],"categories_sizes":[],"default_left":[0,0,0,0,0,0,0,0,0],"id":1,"left_children":[1,-1,3,5,7,-1,-1,-1,-1],"loss_changes":[2.6878085E2,0E0,3.5680536E2,1.741915E2,5.984503E1,0E0,0E0,0E0,0E0],"parents":[2147483647,0,0,2,2,3,3,4,4],"right_children":[2,-1,4,6,8,-1,-1,-1,-1],"split_conditions":[1E0,5.97888E-1,1.9267784E-1,1E5,2E5,3.4967303E-2,-5.5860215E-1,2.9609585E-2,6.435893E-1],"split_indices":[68,0,102,71,71,0,0,0,0],"split_type":[0,0,0,0,0,0,0,0,0],"sum_hessian":[3.2E1,5E0,2.7E1,2E1,7E0,7E0,1.3E1,3E0,4E0],"tree_param":{"num_deleted":"0","num_feature":"123","num_nodes":"9","size_leaf_vector":"1"}},{"base_weights":[4.5532277E-1,4.398156E0,-3.7140546E0,2.0584447E0,7.787935E-1,-6.149492E0,2.1867178E-1,-0E0,3.9198503E-1,-3.2028052E-1,-7.9045963E-1],"categories":[],"categories_nodes":[],"categories_segments":[],"categories_sizes":[],"default_left":[0,0,0,0,0,0,0,0,0,0,0],"id":2,"left_children":[1,3,5,7,-1,9,-1,-1,-1,-1,-1],"loss_changes":[5.1019394E2,1.0102026E2,2.3297437E2,4.5582233E1,0E0,2.0464874E1,0E0,0E0,0E0,0E0,0E0],"parents":[2147483647,0,0,1,1,2,2,3,3,5,5],"right_children":[2,4,6,8,-1,10,-1,-1,-1,-1,-1],"split_conditions":[3E0,2E0,1E0,1E0,7.787935E-1,1.5756395E-1,2.1867178E-1,-0E0,3.9198503E-1,-3.2028052E-1,-7.9045963E-1],"split_indices":[59,59,49,49,0,87,0,0,0,0,0],"split_type":[0,0,0,0,0,0,0,0,0,0,0],"sum_hessian":[2.9E1,1.5E1,1.4E1,1E1,5E0,1E1,4E0,5E0,5E0,5E0,5E0],"tree_param":{"num_deleted":"0","num_feature":"123","num_nodes":"11","size_leaf_vector":"1"}},{"base_weights":[-3.5004526E-1,2.2096956E0,-3.2303104E0,-0E0,5.490628E0,-5.145974E0,2.57961E-1,-2.4372284E-1,2.4756412E-1,6.967258E-1,2.0221834E-1,-6.058035E-1,-1.10131286E-1],"categories":[],"categories_nodes":[],"categories_segments":[],"categories_sizes":[],"default_left":[0,0,0,0,0,0,0,0,0,0,0,0,0],"id":3,"left_children":[1,3,5,7,9,11,-1,-1,-1,-1,-1,-1,-1],"loss_changes":[2.8094974E2,1.4352084E2,2.1617833E2,8.448218E1,1.7894363E1,3.7814545E1,0E0,0E0,0E0,0E0,0E0,0E0,0E0],"parents":[2147483647,0,0,1,1,2,2,3,3,4,4,5,5],"right_children":[2,4,6,8,10,12,-1,-1,-1,-1,-1,-1,-1],"split_conditions":[3E0,2E0,1.9267784E-1,1E0,1E0,2.5817445E-1,2.57961E-1,-2.4372284E-1,2.4756412E-1,6.967258E-1,2.0221834E-1,-6.058035E-1,-1.10131286E-1],"split_indices":[59,59,102,58,53,73,0,0,0,0,0,0,0],"split_type":[0,0,0,0,0,0,0,0,0,0,0,0,0],"sum_hessian":[3.6E1,1.9E1,1.7E1,1.2E1,7E0,1.3E1,4E0,6E0,6E0,4E0,3E0,1E1,3E0],"tree_param":{"num_deleted":"0","num_feature":"123","num_nodes":"13","size_leaf_vector":"1"}},{"base_weights":[-5.03942E-1,1.2688236E0,-3.8148983E0,2.5069795E0,-5.2987003E-1,-8.180012E-1,-8.548464E-1,3.80774E-1,-2.2170024E-1,-2.163695E-1,1.0721379E-1],"categories":[],"categories_nodes":[],"categories_segments":[],"categories_sizes":[],"default_left":[0,0,0,0,0,0,0,0,0,0,0],"id":4,"left_children":[1,3,5,7,-1,-1,9,-1,-1,-1,-1],"loss_changes":[2.1869029E2,2.0565083E2,1.5194502E2,1.390727E2,0E0,0E0,2.6110508E1,0E0,0E0,0E0,0E0],"parents":[2147483647,0,0,1,1,2,2,3,3,6,6],"right_children":[2,4,6,8,-1,-1,10,-1,-1,-1,-1],"split_conditions":[1.5363273E-1,3.1439102E-1,2.5817445E-1,2.134138E-1,-5.2987003E-1,-8.180012E-1,1E0,3.80774E-1,-2.2170024E-1,-2.163695E-1,1.0721379E-1],"split_indices":[73,95,73,74,0,0,33,0,0,0,0],"split_type":[0,0,0,0,0,0,0,0,0,0,0],"sum_hessian":[3.5E1,2.3E1,1.2E1,2E1,3E0,4E0,8E0,1.6E1,4E0,5E0,3E0],"tree_param":{"num_deleted":"0","num_feature":"123","num_nodes":"11","size_leaf_vector":"1"}},{"base_weights":[2.7583268E-1,1.3208613E0,-4.397989E0,2.168026E0,-4.9012986E-1,-7.038215E-1,-4.0826537E-2,3.547003E-1,-1.770163E-1],"categories":[],"categories_nodes":[],"categories_segments":[],"categories_sizes":[],"default_left":[0,0,0,0,0,0,0,0,0],"id":5,"left_children":[1,3,5,7,-1,-1,-1,-1,-1],"loss_changes":[1.8833455E2,1.7657108E2,6.3416443E1,1.6554506E2,0E0,0E0,0E0,0E0,0E0],"parents":[2147483647,0,0,1,1,2,2,3,3],"right_children":[2,4,6,8,-1,-1,-1,-1,-1],"split_conditions":[2.9418683E-1,3.1439102E-1,2.437815E-1,2.134138E-1,-4.9012986E-1,-7.038215E-1,-4.0826537E-2,3.547003E-1,-1.770163E-1],"split_indices":[83,95,73,74,0,0,0,0,0],"split_type":[0,0,0,0,0,0,0,0,0],"sum_hessian":[3.7E1,3.1E1,6E0,2.8E1,3E0,3E0,3E0,2.1E1,7E0],"tree_param":{"num_deleted":"0","num_feature":"123","num_nodes":"9","size_leaf_vector":"1"}},{"base_weights":[-7.505187E-1,9.5934033E-1,-4.192917E0,-1.0887326E0,3.6259012E0,-7.5732887E-1,-1.8536166E0,-2.823571E-1,1.2391739E-1,5.7709384E-1,-7.84389E-2,-2.024231E-2,-2.603848E-1],"categories":[],"categories_nodes":[],"categories_segments":[],"categories_sizes":[],"default_left":[0,0,0,0,0,0,0,0,0,0,0,0,0],"id":6,"left_children":[1,3,5,7,9,-1,11,-1,-1,-1,-1,-1,-1],"loss_changes":[1.9560852E2,1.2663365E2,6.3519867E1,5.758433E1,1.0411557E2,0E0,6.57687E0,0E0,0E0,0E0,0E0,0E0,0E0],"parents":[2147483647,0,0,1,1,2,2,3,3,4,4,6,6],"right_children":[2,4,6,8,10,-1,12,-1,-1,-1,-1,-1,-1],"split_conditions":[2.1968497E-1,1E0,2.5817445E-1,3.8414484E-1,3E6,-7.5732887E-1,3.75E4,-2.823571E-1,1.2391739E-1,5.7709384E-1,-7.84389E-2,-2.024231E-2,-2.603848E-1],"split_indices":[73,58,73,113,69,0,69,0,0,0,0,0,0],"split_type":[0,0,0,0,0,0,0,0,0,0,0,0,0],"sum_hessian":[3.1E1,2.1E1,1E1,1.2E1,9E0,3E0,7E0,7E0,5E0,6E0,3E0,3E0,4E0],"tree_param":{"num_deleted":"0","num_feature":"123","num_nodes":"13","size_leaf_vector":"1"}},{"base_weights":[-1.7389046E-1,4.690551E-1,-1.0410737E0,-2.2741542E0,3.898094E-1,-3.084968E-1,2.301156E-1],"categories":[],"categories_nodes":[],"categories_segments":[],"categories_sizes":[],"default_left":[0,0,0,0,0,0,0],"id":7,"left_children":[1,-1,3,5,-1,-1,-1],"loss_changes":[1.4043968E2,0E0,1.8386227E2,9.6916176E1,0E0,0E0,0E0],"parents":[2147483647,0,0,2,2,3,3],"right_children":[2,-1,4,6,-1,-1,-1],"split_conditions":[1E0,4.690551E-1,2.5397903E-1,3.6806095E-1,3.898094E-1,-3.084968E-1,2.301156E-1],"split_indices":[63,0,79,86,0,0,0],"split_type":[0,0,0,0,0,0,0],"sum_hessian":[3.2E1,4E0,2.8E1,2.3E1,5E0,2E1,3E0],"tree_param":{"num_deleted":"0","num_feature":"123","num_nodes":"7","size_leaf_vector":"1"}},{"base_weights":[5.292189E-1,2.0951686E0,-1.2268106E0,3.5186293E0,-6.970377E-2,-3.0366418E-1,2.4382134E-1,1.1194277E-1,4.1534016E-1],"categories":[],"categories_nodes":[],"categories_segments":[],"categories_sizes":[],"default_left":[0,0,0,0,0,0,0,0,0],"id":8,"left_children":[1,3,5,7,-1,-1,-1,-1,-1],"loss_changes":[8.3184494E1,6.886777E1,1.0086543E2,6.830139E0,0E0,0E0,0E0,0E0,0E0],"parents":[2147483647,0,0,1,1,2,2,3,3],"right_children":[2,4,6,8,-1,-1,-1,-1,-1],"split_conditions":[3E0,3.1105554E-1,1.9267784E-1,1.5E4,-6.970377E-2,-3.0366418E-1,2.4382134E-1,1.1194277E-1,4.1534016E-1],"split_indices":[59,93,102,70,0,0,0,0,0],"split_type":[0,0,0,0,0,0,0,0,0],"sum_hessian":[2.8E1,1.5E1,1.3E1,1E1,5E0,9E0,4E0,3E0,7E0],"tree_param":{"num_deleted":"0","num_feature":"123","num_nodes":"9","size_leaf_vector":"1"}},{"base_weights":[8.661682E-2,1.9375433E0,-2.6245313E0,-9.2132187E-1,3.2091775E0,-7.486983E-1,-5.2686423E-1,-3.4424406E-1,1.5801273E-1,5.2035916E-1,6.8861656E-2,-2.3843448E-1,1.9789813E-1],"categories":[],"categories_nodes":[],"categories_segments":[],"categories_sizes":[],"default_left":[0,0,0,0,0,0,0,0,0,0,0,0,0],"id":9,"left_children":[1,3,5,7,9,-1,11,-1,-1,-1,-1,-1,-1],"loss_changes":[1.7501479E2,8.158859E1,1.308388E2,5.144696E1,6.593013E1,0E0,5.6324097E1,0E0,0E0,0E0,0E0,0E0,0E0],"parents":[2147483647,0,0,1,1,2,2,3,3,4,4,6,6],"right_children":[2,4,6,8,10,-1,12,-1,-1,-1,-1,-1,-1],"split_conditions":[2.3982573E-1,2E0,2.6478073E-1,2.5E4,3E6,-7.486983E-1,1E0,-3.4424406E-1,1.5801273E-1,5.2035916E-1,6.8861656E-2,-2.3843448E-1,1.9789813E-1],"split_indices":[87,59,87,69,69,0,33,0,0,0,0,0,0],"split_type":[0,0,0,0,0,0,0,0,0,0,0,0,0],"sum_hessian":[3.3E1,2E1,1.3E1,6E0,1.4E1,3E0,1E1,3E0,3E0,7E0,7E0,6E0,4E0],"tree_param":{"num_deleted":"0","num_feature":"123","num_nodes":"13","size_leaf_vector":"1"}},{"base_weights":[-1.1200463E-1,1.1765184E0,-3.0851812E0,2.6502156E0,-2.529789E0,-6.189038E-1,-1.25178E0,3.4384602E-1,7.1234703E-3,-3.1405324E-1,-8.839128E-2,-2.1240354E-1,1.1954784E-2],"categories":[],"categories_nodes":[],"categories_segments":[],"categories_sizes":[],"default_left":[0,0,0,0,0,0,0,0,0,0,0,0,0],"id":10,"left_children":[1,3,5,7,9,-1,11,-1,-1,-1,-1,-1,-1],"loss_changes":[1.511167E2,1.5429822E2,5.309926E1,3.6902725E1,1.2412605E0,0E0,1.3023745E1,0E0,0E0,0E0,0E0,0E0,0E0],"parents":[2147483647,0,0,1,1,2,2,3,3,4,4,6,6],"right_children":[2,4,6,8,10,-1,12,-1,-1,-1,-1,-1,-1],"split_conditions":[2.1968497E-1,2.134138E-1,2.5817445E-1,2.6640108E-1,4.024219E-1,-6.189038E-1,3.5943392E-1,3.4384602E-1,7.1234703E-3,-3.1405324E-1,-8.839128E-2,-2.1240354E-1,1.1954784E-2],"split_indices":[73,74,73,75,74,0,75,0,0,0,0,0,0],"split_type":[0,0,0,0,0,0,0,0,0,0,0,0,0],"sum_hessian":[3.7E1,2.6E1,1.1E1,1.9E1,7E0,3E0,8E0,1.4E1,5E0,4E0,3E0,5E0,3E0],"tree_param":{"num_deleted":"0","num_feature":"123","num_nodes":"13","size_leaf_vector":"1"}},{"base_weights":[3.1066066E-1,2.1746693E0,-1.3208554E0,4.3235016E-1,3.9557343E0,7.112963E-1,-3.7689457E0,1.6387258E-1,-1.5368949E-1,5.844992E-1,1.4531815E-1,-6.421701E-2,3.490405E-1,-5.613719E-1,-9.7038366E-2],"categories":[],"categories_nodes":[],"categories_segments":[],"categories_sizes":[],"default_left":[0,0,0,0,0,0,0,0,0,0,0,0,0,0,0],"id":11,"left_children":[1,3,5,7,9,11,13,-1,-1,-1,-1,-1,-1,-1,-1],"loss_changes":[1.1016683E2,4.6655777E1,1.0026142E2,2.6376873E1,2.203173E1,4.6465405E1,3.443283E1,0E0,0E0,0E0,0E0,0E0,0E0,0E0,0E0],"parents":[2147483647,0,0,1,1,2,2,3,3,4,4,5,5,6,6],"right_children":[2,4,6,8,10,12,14,-1,-1,-1,-1,-1,-1,-1,-1],"split_conditions":[3E0,2E0,1.5363273E-1,2.6640108E-1,1E0,1E0,2.5817445E-1,1.6387258E-1,-1.5368949E-1,5.844992E-1,1.4531815E-1,-6.421701E-2,3.490405E-1,-5.613719E-1,-9.7038366E-2],"split_indices":[59,59,73,75,19,49,73,0,0,0,0,0,0,0,0],"split_type":[0,0,0,0,0,0,0,0,0,0,0,0,0,0,0],"sum_hessian":[3.4E1,1.6E1,1.8E1,9E0,7E0,1E1,8E0,6E0,3E0,3E0,4E0,7E0,3E0,4E0,4E0],"tree_param":{"num_deleted":"0","num_feature":"123","num_nodes":"15","size_leaf_vector":"1"}},{"base_weights":[-4.3684956E-1,3.7356973E-2,-4.3712893E-1,6.0894823E-1,-3.866019E-1,1.3657185E-1,-1.4232884E-1],"categories":[],"categories_nodes":[],"categories_segments":[],"categories_sizes":[],"default_left":[0,0,0,0,0,0,0],"id":12,"left_children":[1,3,-1,5,-1,-1,-1],"loss_changes":[6.979803E1,7.049348E1,0E0,4.6486397E1,0E0,0E0,0E0],"parents":[2147483647,0,0,1,1,3,3],"right_children":[2,4,-1,6,-1,-1,-1],"split_conditions":[4.0984213E-1,3.1439102E-1,-4.3712893E-1,2.134138E-1,-3.866019E-1,1.3657185E-1,-1.4232884E-1],"split_indices":[94,95,0,74,0,0,0],"split_type":[0,0,0,0,0,0,0],"sum_hessian":[3.4E1,3.1E1,3E0,2.8E1,3E0,2.1E1,7E0],"tree_param":{"num_deleted":"0","num_feature":"123","num_nodes":"7","size_leaf_vector":"1"}},{"base_weights":[-2.6552746E-1,-9.367399E-1,3.614853E-1,-1.6310667E0,2.6611075E-1,-2.750882E-2,-4.050683E-1],"categories":[],"categories_nodes":[],"categories_segments":[],"categories_sizes":[],"default_left":[0,0,0,0,0,0,0],"id":13,"left_children":[1,3,-1,5,-1,-1,-1],"loss_changes":[8.92631E1,7.825285E1,0E0,7.986458E1,0E0,0E0,0E0],"parents":[2147483647,0,0,1,1,3,3],"right_children":[2,4,-1,6,-1,-1,-1],"split_conditions":[1E0,3.1437588E-1,3.614853E-1,1.5756395E-1,2.6611075E-1,-2.750882E-2,-4.050683E-1],"split_indices":[16,114,0,87,0,0,0],"split_type":[0,0,0,0,0,0,0],"sum_hessian":[3.3E1,2.9E1,4E0,2.5E1,4E0,1.7E1,8E0],"tree_param":{"num_deleted":"0","num_feature":"123","num_nodes":"7","size_leaf_vector":"1"}},{"base_weights":[-1.9304912E-1,1.4732028E0,-1.4830856E0,2.3083277E0,-4.587124E-2,-2.579564E0,2.1222623E-1,3.3918843E-1,-1.8586708E-2,7.602129E-2,-3.485683E-1],"categories":[],"categories_nodes":[],"categories_segments":[],"categories_sizes":[],"default_left":[0,0,0,0,0,0,0,0,0,0,0],"id":14,"left_children":[1,3,5,7,-1,9,-1,-1,-1,-1,-1],"loss_changes":[7.527865E1,2.7109333E1,8.499553E1,3.3565063E1,0E0,5.3795067E1,0E0,0E0,0E0,0E0,0E0],"parents":[2147483647,0,0,1,1,2,2,3,3,5,5],"right_children":[2,4,6,8,-1,10,-1,-1,-1,-1,-1],"split_conditions":[1E0,2.6640108E-1,1E0,3E0,-4.587124E-2,1E0,2.1222623E-1,3.3918843E-1,-1.8586708E-2,7.602129E-2,-3.485683E-1],"split_indices":[67,75,49,59,0,63,0,0,0,0,0],"split_type":[0,0,0,0,0,0,0,0,0,0,0],"sum_hessian":[3.3E1,1.4E1,1.9E1,1E1,4E0,1.5E1,4E0,7E0,3E0,3E0,1.2E1],"tree_param":{"num_deleted":"0","num_feature":"123","num_nodes":"11","size_leaf_vector":"1"}},{"base_weights":[-1.6457292E-1,-8.3093935E-1,3.1390822E-1,3.8508996E-1,-3.167819E0,-2.5296805E-2,3.4100786E-1,-5.170085E-1,-4.7091708E-2],"categories":[],"categories_nodes":[],"categories_segments":[],"categories_sizes":[],"default_left":[0,0,0,0,0,0,0,0,0],"id":15,"left_children":[1,3,-1,5,7,-1,-1,-1,-1],"loss_changes":[7.955225E1,9.209576E1,0E0,4.455223E1,5.132337E1,0E0,0E0,0E0,0E0],"parents":[2147483647,0,0,1,1,3,3,4,4],"right_children":[2,4,-1,6,8,-1,-1,-1,-1],"split_conditions":[2.5397903E-1,1.5756395E-1,3.1390822E-1,1E0,2.8969622E-1,-2.5296805E-2,3.4100786E-1,-5.170085E-1,-4.7091708E-2],"split_indices":[79,87,0,16,73,0,0,0,0],"split_type":[0,0,0,0,0,0,0,0,0],"sum_hessian":[3.5E1,3E1,5E0,2E1,1E1,1.7E1,3E0,5E0,5E0],"tree_param":{"num_deleted":"0","num_feature":"123","num_nodes":"9","size_leaf_vector":"1"}},{"base_weights":[2.4065825E-1,1.1053017E0,-1.7340134E0,1.6788372E0,-9.196227E-2,8.0295675E-2,-4.1486478E-1,-3.578591E-2,3.0366394E-1],"categories":[],"categories_nodes":[],"categories_segments":[],"categories_sizes":[],"default_left":[0,0,0,0,0,0,0,0,0],"id":16,"left_children":[1,3,5,7,-1,-1,-1,-1,-1],"loss_changes":[6.2753822E1,3.2498623E1,7.4061295E1,6.1839516E1,0E0,0E0,0E0,0E0,0E0],"parents":[2147483647,0,0,1,1,2,2,3,3],"right_children":[2,4,6,8,-1,-1,-1,-1,-1],"split_conditions":[2.3982573E-1,2.134138E-1,1E0,2E0,-9.196227E-2,8.0295675E-2,-4.1486478E-1,-3.578591E-2,3.0366394E-1],"split_indices":[87,74,67,59,0,0,0,0,0],"split_type":[0,0,0,0,0,0,0,0,0],"sum_hessian":[3.5E1,2.5E1,1E1,2E1,5E0,5E0,5E0,8E0,1.2E1],"tree_param":{"num_deleted":"0","num_feature":"123","num_nodes":"9","size_leaf_vector":"1"}},{"base_weights":[-4.5294243E-1,2.4563992E0,-1.1998156E0,3.30568E-1,7.430186E-2,-1.8680955E0,2.0478912E-1,-2.4825394E-1,1.5747586E-1],"categories":[],"categories_nodes":[],"categories_segments":[],"categories_sizes":[],"default_left":[0,0,0,0,0,0,0,0,0],"id":17,"left_children":[1,3,5,-1,-1,7,-1,-1,-1],"loss_changes":[7.556955E1,3.6811066E0,6.441642E1,0E0,0E0,5.558776E1,0E0,0E0,0E0],"parents":[2147483647,0,0,1,1,2,2,5,5],"right_children":[2,4,6,-1,-1,8,-1,-1,-1],"split_conditions":[1E0,2.5E4,3.6806095E-1,3.30568E-1,7.430186E-2,2.5397903E-1,2.0478912E-1,-2.4825394E-1,1.5747586E-1],"split_indices":[68,69,86,0,0,79,0,0,0],"split_type":[0,0,0,0,0,0,0,0,0],"sum_hessian":[3.3E1,6E0,2.7E1,3E0,3E0,2.3E1,4E0,2E1,3E0],"tree_param":{"num_deleted":"0","num_feature":"123","num_nodes":"9","size_leaf_vector":"1"}},{"base_weights":[-0E0,5.214911E-1,-3.3148533E-1,-1.6374147E0,1.5693154E0,-0E0,-2.789131E-1,3.423553E-1,-3.418536E-2],"categories":[],"categories_nodes":[],"categories_segments":[],"categories_sizes":[],"default_left":[0,0,0,0,0,0,0,0,0],"id":18,"left_children":[1,3,-1,5,7,-1,-1,-1,-1],"loss_changes":[5.129574E1,6.3579678E1,0E0,1.4766121E1,7.158351E1,0E0,0E0,0E0,0E0],"parents":[2147483647,0,0,1,1,3,3,4,4],"right_children":[2,4,-1,6,8,-1,-1,-1,-1],"split_conditions":[1E0,2E0,-3.3148533E-1,3.1105554E-1,3E5,-0E0,-2.789131E-1,3.423553E-1,-3.418536E-2],"split_indices":[7,59,0,93,70,0,0,0,0],"split_type":[0,0,0,0,0,0,0,0,0],"sum_hessian":[2.9E1,2.6E1,3E0,8E0,1.8E1,4E0,4E0,9E0,9E0],"tree_param":{"num_deleted":"0","num_feature":"123","num_nodes":"9","size_leaf_vector":"1"}},{"base_weights":[1.2630333E-1,1.005478E0,-1.8963463E0,1.6076559E-1,2.5498073E0,3.094988E-2,-3.5851595E-1,-4.4548478E-2,1.9048634E-1,-0E0,5.054235E-1],"categories":[],"categories_nodes":[],"categories_segments":[],"categories_sizes":[],"default_left":[0,0,0,0,0,0,0,0,0,0,0],"id":19,"left_children":[1,3,5,7,9,-1,-1,-1,-1,-1,-1],"loss_changes":[5.969853E1,2.8187845E1,4.163787E1,2.0283083E1,5.016903E1,0E0,0E0,0E0,0E0,0E0,0E0],"parents":[2147483647,0,0,1,1,2,2,3,3,4,4],"right_children":[2,4,6,8,10,-1,-1,-1,-1,-1,-1],"split_conditions":[2.3982573E-1,1.9267784E-1,1E0,1E0,2E0,3.094988E-2,-3.5851595E-1,-4.4548478E-2,1.9048634E-1,-0E0,5.054235E-1],"split_indices":[87,93,67,49,59,0,0,0,0,0,0],"split_type":[0,0,0,0,0,0,0,0,0,0,0],"sum_hessian":[3.2E1,2.3E1,9E0,1.6E1,7E0,4E0,5E0,1.2E1,4E0,4E0,3E0],"tree_param":{"num_deleted":"0","num_feature":"123","num_nodes":"11","size_leaf_vector":"1"}},{"base_weights":[2.038068E-1,6.032115E-1,-2.9920852E-1,-1.8082614E-1,1.8076102E0,2.3097144E-1,-1.1659773E-1,2.6387414E-1,-6.79903E-2],"categories":[],"categories_nodes":[],"categories_segments":[],"categories_sizes":[],"default_left":[0,0,0,0,0,0,0,0,0],"id":20,"left_children":[1,3,-1,5,7,-1,-1,-1,-1],"loss_changes":[4.6644802E1,3.405964E1,0E0,5.3074066E1,3.2697224E1,0E0,0E0,0E0,0E0],"parents":[2147483647,0,0,1,1,3,3,4,4],"right_children":[2,4,-1,6,8,-1,-1,-1,-1],"split_conditions":[4.0984213E-1,1E0,-2.9920852E-1,1E0,3.5064235E-1,2.3097144E-1,-1.1659773E-1,2.6387414E-1,-6.79903E-2],"split_indices":[94,49,0,67,93,0,0,0,0],"split_type":[0,0,0,0,0,0,0,0,0],"sum_hessian":[3.6E1,3.3E1,3E0,2E1,1.3E1,5E0,1.5E1,1E1,3E0],"tree_param":{"num_deleted":"0","num_feature":"123","num_nodes":"9","size_leaf_vector":"1"}},{"base_weights":[5.4791983E-2,-4.5124182E-1,2.6581568E-1,-9.476227E-1,2.6380444E-1,-0E0,-2.0540242E-1],"categories":[],"categories_nodes":[],"categories_segments":[],"categories_sizes":[],"default_left":[0,0,0,0,0,0,0],"id":21,"left_children":[1,3,-1,5,-1,-1,-1],"loss_changes":[4.8197666E1,4.5279865E1,0E0,2.7280481E1,0E0,0E0,0E0],"parents":[2147483647,0,0,1,1,3,3],"right_children":[2,4,-1,6,-1,-1,-1],"split_conditions":[2.5397903E-1,3.4798035E-1,2.6581568E-1,3E0,2.6380444E-1,-0E0,-2.0540242E-1],"split_indices":[79,112,0,59,0,0,0],"split_type":[0,0,0,0,0,0,0],"sum_hessian":[3.3E1,2.8E1,5E0,2.5E1,3E0,1.4E1,1.1E1],"tree_param":{"num_deleted":"0","num_feature":"123","num_nodes":"7","size_leaf_vector":"1"}},{"base_weights":[-5.9660125E-1,-2.0117825E-1,-3.064268E-1,9.0579814E-1,-9.835415E-1,1.4496486E-1,-2.9431487E-2,-1.9201756E-2,-3.455871E-1],"categories":[],"categories_nodes":[],"categories_segments":[],"categories_sizes":[],"default_left":[0,0,0,0,0,0,0,0,0],"id":22,"left_children":[1,3,-1,5,7,-1,-1,-1,-1],"loss_changes":[2.73428E1,2.6084303E1,0E0,9.41417E0,3.0912868E1,0E0,0E0,0E0,0E0],"parents":[2147483647,0,0,1,1,3,3,4,4],"right_children":[2,4,-1,6,8,-1,-1,-1,-1],"split_conditions":[3.1439102E-1,1E0,-3.064268E-1,3.968401E-1,2.670955E-1,1.4496486E-1,-2.9431487E-2,-1.9201756E-2,-3.455871E-1],"split_indices":[95,67,0,100,83,0,0,0,0],"split_type":[0,0,0,0,0,0,0,0,0],"sum_hessian":[3.1E1,2.8E1,3E0,1.1E1,1.7E1,8E0,3E0,1.4E1,3E0],"tree_param":{"num_deleted":"0","num_feature":"123","num_nodes":"9","size_leaf_vector":"1"}},{"base_weights":[1.8665446E-2,3.9423475E-1,-2.8344476E-1,8.293272E-1,-2.7175173E-1,1.2582885E-1,-9.2956625E-2],"categories":[],"categories_nodes":[],"categories_segments":[],"categories_sizes":[],"default_left":[0,0,0,0,0,0,0],"id":23,"left_children":[1,3,-1,5,-1,-1,-1],"loss_changes":[3.7252724E1,4.5044216E1,0E0,2.4133303E1,0E0,0E0,0E0],"parents":[2147483647,0,0,1,1,3,3],"right_children":[2,4,-1,6,-1,-1,-1],"split_conditions":[3.1439102E-1,3.8748205E-1,-2.8344476E-1,2.3139344E-1,-2.7175173E-1,1.2582885E-1,-9.2956625E-2],"split_indices":[95,84,0,108,0,0,0],"split_type":[0,0,0,0,0,0,0],"sum_hessian":[3.5E1,3.2E1,3E0,2.9E1,3E0,2.4E1,5E0],"tree_param":{"num_deleted":"0","num_feature":"123","num_nodes":"7","size_leaf_vector":"1"}},{"base_weights":[-2.3165613E-2,-6.156013E-1,2.4799894E-1,2.5350067E-1,-1.3172292E0,-2.1740766E-1,1.3061844E-1],"categories":[],"categories_nodes":[],"categories_segments":[],"categories_sizes":[],"default_left":[0,0,0,0,0,0,0],"id":24,"left_children":[1,3,-1,-1,5,-1,-1],"loss_changes":[4.7116966E1,6.1806366E1,0E0,0E0,5.540853E1,0E0,0E0],"parents":[2147483647,0,0,1,1,4,4],"right_children":[2,4,-1,-1,6,-1,-1],"split_conditions":[2.5397903E-1,1E0,2.4799894E-1,2.5350067E-1,3.108217E-1,-2.1740766E-1,1.3061844E-1],"split_indices":[79,63,0,0,100,0,0],"split_type":[0,0,0,0,0,0,0],"sum_hessian":[3.1E1,2.6E1,5E0,4E0,2.2E1,1.7E1,5E0],"tree_param":{"num_deleted":"0","num_feature":"123","num_nodes":"7","size_leaf_vector":"1"}},{"base_weights":[-8.184136E-2,-6.397927E-1,3.1938252E-1,-1.5349616E-1,-3.6339203E-1,1.8149361E-2,-2.4588083E-1],"categories":[],"categories_nodes":[],"categories_segments":[],"categories_sizes":[],"default_left":[0,0,0,0,0,0,0],"id":25,"left_children":[1,3,-1,5,-1,-1,-1],"loss_changes":[6.3457542E1,4.079184E1,0E0,2.4346739E1,0E0,0E0,0E0],"parents":[2147483647,0,0,1,1,3,3],"right_children":[2,4,-1,6,-1,-1,-1],"split_conditions":[2.5397903E-1,1E0,3.1938252E-1,3.1439102E-1,-3.6339203E-1,1.8149361E-2,-2.4588083E-1],"split_indices":[79,7,0,95,0,0,0],"split_type":[0,0,0,0,0,0,0],"sum_hessian":[3.4E1,3E1,4E0,2.7E1,3E0,2.4E1,3E0],"tree_param":{"num_deleted":"0","num_feature":"123","num_nodes":"7","size_leaf_vector":"1"}},{"base_weights":[2.6269585E-1,9.12425E-1,-7.801301E-1,1.337779E0,-6.0133476E-2,-1.9944742E0,4.0280396E-1,1.7295642E-1,-2.1585966E-2,-3.107892E-1,-1.3243771E-2,-8.234978E-3,1.0372567E-1],"categories":[],"categories_nodes":[],"categories_segments":[],"categories_sizes":[],"default_left":[0,0,0,0,0,0,0,0,0,0,0,0,0],"id":26,"left_children":[1,3,5,7,-1,9,11,-1,-1,-1,-1,-1,-1],"loss_changes":[2.3880957E1,1.5706343E1,2.1069408E1,1.28435135E1,0E0,1.08606415E1,3.1949747E0,0E0,0E0,0E0,0E0,0E0,0E0],"parents":[2147483647,0,0,1,1,2,2,3,3,5,5,6,6],"right_children":[2,4,6,8,-1,10,12,-1,-1,-1,-1,-1,-1],"split_conditions":[1.6169688E-1,1E0,1E0,3.3629635E-1,-6.0133476E-2,1E0,1E0,1.7295642E-1,-2.1585966E-2,-3.107892E-1,-1.3243771E-2,-8.234978E-3,1.0372567E-1],"split_indices":[100,41,58,106,0,32,49,0,0,0,0,0,0],"split_type":[0,0,0,0,0,0,0,0,0,0,0,0,0],"sum_hessian":[3.3E1,2.1E1,1.2E1,1.7E1,4E0,6E0,6E0,1.4E1,3E0,3E0,3E0,3E0,3E0],"tree_param":{"num_deleted":"0","num_feature":"123","num_nodes":"13","size_leaf_vector":"1"}},{"base_weights":[5.499793E-1,1.1426417E0,-8.2740813E-1,1.6247905E0,-8.144821E-2,-0E0,-1.0501834E0,2.0649257E-1,-0E0,-1.5082566E-1,-7.956433E-3],"categories":[],"categories_nodes":[],"categories_segments":[],"categories_sizes":[],"default_left":[0,0,0,0,0,0,0,0,0,0,0],"id":27,"left_children":[1,3,5,7,-1,-1,9,-1,-1,-1,-1],"loss_changes":[2.819941E1,2.4780668E1,8.7415504E-1,1.5423813E1,0E0,0E0,1.4044781E0,0E0,0E0,0E0,0E0],"parents":[2147483647,0,0,1,1,2,2,3,3,6,6],"right_children":[2,4,6,8,-1,-1,10,-1,-1,-1,-1],"split_conditions":[2.134138E-1,3.645498E-1,3E0,1E0,-8.144821E-2,-0E0,1E0,2.0649257E-1,-0E0,-1.5082566E-1,-7.956433E-3],"split_indices":[74,93,72,30,0,0,62,0,0,0,0],"split_type":[0,0,0,0,0,0,0,0,0,0,0],"sum_hessian":[3.2E1,2.3E1,9E0,1.9E1,4E0,3E0,6E0,1.5E1,4E0,3E0,3E0],"tree_param":{"num_deleted":"0","num_feature":"123","num_nodes":"11","size_leaf_vector":"1"}},{"base_weights":[1.7650619E-1,8.231773E-1,-1.293155E0,-7.557704E-1,1.7223867E0,-2.7812502E-1,-0E0,4.4735875E-2,-2.6215217E-1,8.989864E-2,3.7178412E-1],"categories":[],"categories_nodes":[],"categories_segments":[],"categories_sizes":[],"default_left":[0,0,0,0,0,0,0,0,0,0,0],"id":28,"left_children":[1,3,5,7,9,-1,-1,-1,-1,-1,-1],"loss_changes":[3.19573E1,3.634365E1,2.1954266E1,2.354958E1,1.8329815E1,0E0,0E0,0E0,0E0,0E0,0E0],"parents":[2147483647,0,0,1,1,2,2,3,3,4,4],"right_children":[2,4,6,8,10,-1,-1,-1,-1,-1,-1],"split_conditions":[2.3384205E-1,2E0,2.8969622E-1,1E0,1.7554359E-1,-2.7812502E-1,-0E0,4.4735875E-2,-2.6215217E-1,8.989864E-2,3.7178412E-1],"split_indices":[73,59,73,68,93,0,0,0,0,0,0],"split_type":[0,0,0,0,0,0,0,0,0,0,0],"sum_hessian":[3.2E1,2.3E1,9E0,8E0,1.5E1,4E0,5E0,5E0,3E0,1.2E1,3E0],"tree_param":{"num_deleted":"0","num_feature":"123","num_nodes":"11","size_leaf_vector":"1"}},{"base_weights":[5.7681847E-2,6.165599E-1,-1.3011694E0,1.5416297E0,-6.941378E-1,-3.9358804E-1,2.4740383E-2,3.022863E-2,2.1550071E-1,-2.0468067E-1,-0E0],"categories":[],"categories_nodes":[],"categories_segments":[],"categories_sizes":[],"default_left":[0,0,0,0,0,0,0,0,0,0,0],"id":29,"left_children":[1,3,5,7,9,-1,-1,-1,-1,-1,-1],"loss_changes":[2.6697767E1,3.344225E1,4.5462654E1,9.054245E0,1.1457569E1,0E0,0E0,0E0,0E0,0E0,0E0],"parents":[2147483647,0,0,1,1,2,2,3,3,4,4],"right_children":[2,4,6,8,10,-1,-1,-1,-1,-1,-1],"split_conditions":[2.8356865E-1,1.6169688E-1,3.5130024E-1,1E0,1E0,-3.9358804E-1,2.4740383E-2,3.022863E-2,2.1550071E-1,-2.0468067E-1,-0E0],"split_indices":[75,100,75,61,58,0,0,0,0,0,0],"split_type":[0,0,0,0,0,0,0,0,0,0,0],"sum_hessian":[3.4E1,2.5E1,9E0,1.5E1,1E1,3E0,6E0,6E0,9E0,3E0,7E0],"tree_param":{"num_deleted":"0","num_feature":"123","num_nodes":"11","size_leaf_vector":"1"}},{"base_weights":[-7.644645E-2,2.6584873E-1,-2.3149283E-1,7.841149E-1,-9.194517E-1,2.2555272E-1,2.8864741E-3,-1.3733743E-1,-2.9692808E-2],"categories":[],"categories_nodes":[],"categories_segments":[],"categories_sizes":[],"default_left":[0,0,0,0,0,0,0,0,0],"id":30,"left_children":[1,3,-1,5,7,-1,-1,-1,-1],"loss_changes":[2.8716032E1,1.9014652E1,0E0,2.2098763E1,4.6510172E-1,0E0,0E0,0E0,0E0],"parents":[2147483647,0,0,1,1,3,3,4,4],"right_children":[2,4,-1,6,8,-1,-1,-1,-1],"split_conditions":[1E0,2.134138E-1,-2.3149283E-1,1E0,1E0,2.2555272E-1,2.8864741E-3,-1.3733743E-1,-2.9692808E-2],"split_indices":[7,74,0,19,58,0,0,0,0],"split_type":[0,0,0,0,0,0,0,0,0],"sum_hessian":[3.3E1,2.9E1,4E0,2.1E1,8E0,6E0,1.5E1,3E0,5E0],"tree_param":{"num_deleted":"0","num_feature":"123","num_nodes":"9","size_leaf_vector":"1"}},{"base_weights":[-2.094297E-1,7.757796E-2,-2.2617944E-1,-1.1983672E0,7.2791797E-1,-0E0,-2.2957101E-1,1.185857E-2,1.9608794E-1],"categories":[],"categories_nodes":[],"categories_segments":[],"categories_sizes":[],"default_left":[0,0,0,0,0,0,0,0,0],"id":31,"left_children":[1,3,-1,5,7,-1,-1,-1,-1],"loss_changes":[2.4154324E1,2.7785206E1,0E0,1.5824783E1,1.4967518E1,0E0,0E0,0E0,0E0],"parents":[2147483647,0,0,1,1,3,3,4,4],"right_children":[2,4,-1,6,8,-1,-1,-1,-1],"split_conditions":[3.13145E-1,3.5E4,-2.2617944E-1,1.7554359E-1,1.9267784E-1,-0E0,-2.2957101E-1,1.185857E-2,1.9608794E-1],"split_indices":[83,71,0,93,102,0,0,0,0],"split_type":[0,0,0,0,0,0,0,0,0],"sum_hessian":[3.6E1,3.2E1,4E0,1E1,2.2E1,5E0,5E0,1.6E1,6E0],"tree_param":{"num_deleted":"0","num_feature":"123","num_nodes":"9","size_leaf_vector":"1"}},{"base_weights":[4.206004E-2,7.4550056E-1,-1.4056338E0,1.1170725E0,-6.89887E-2,-2.8957748E-1,-0E0,-0E0,1.8264598E-1,-0E0,-4.6918393E-4],"categories":[],"categories_nodes":[],"categories_segments":[],"categories_sizes":[],"default_left":[0,0,0,0,0,0,0,0,0,0,0],"id":32,"left_children":[1,3,5,7,-1,-1,9,-1,-1,-1,-1],"loss_changes":[3.501223E1,1.3998231E1,2.0193687E1,1.5074451E1,0E0,0E0,8.805342E-5,0E0,0E0,0E0,0E0],"parents":[2147483647,0,0,1,1,2,2,3,3,6,6],"right_children":[2,4,6,8,-1,-1,10,-1,-1,-1,-1],"split_conditions":[2.3982573E-1,2.134138E-1,2.5817445E-1,2E0,-6.89887E-2,-2.8957748E-1,1E0,-0E0,1.8264598E-1,-0E0,-4.6918393E-4],"split_indices":[87,74,73,59,0,0,49,0,0,0,0],"split_type":[0,0,0,0,0,0,0,0,0,0,0],"sum_hessian":[3.3E1,2.3E1,1E1,1.9E1,4E0,4E0,6E0,8E0,1.1E1,3E0,3E0],"tree_param":{"num_deleted":"0","num_feature":"123","num_nodes":"11","size_leaf_vector":"1"}},{"base_weights":[1.0617201E-2,2.8262103E-1,-1.9180678E-1,7.5193167E-1,-7.250556E-1,-1.0916392E-4,1.5256274E-1,-0E0,-9.592028E-2],"categories":[],"categories_nodes":[],"categories_segments":[],"categories_sizes":[],"default_left":[0,0,0,0,0,0,0,0,0],"id":33,"left_children":[1,3,-1,5,7,-1,-1,-1,-1],"loss_changes":[1.7267977E1,1.5705296E1,0E0,1.492625E1,1.1834335E0,0E0,0E0,0E0,0E0],"parents":[2147483647,0,0,1,1,3,3,4,4],"right_children":[2,4,-1,6,8,-1,-1,-1,-1],"split_conditions":[4.0984213E-1,2.134138E-1,-1.9180678E-1,2E0,3E0,-1.0916392E-4,1.5256274E-1,-0E0,-9.592028E-2],"split_indices":[94,74,0,59,72,0,0,0,0],"split_type":[0,0,0,0,0,0,0,0,0],"sum_hessian":[3.4E1,3.1E1,3E0,2.2E1,9E0,1.1E1,1.1E1,3E0,6E0],"tree_param":{"num_deleted":"0","num_feature":"123","num_nodes":"9","size_leaf_vector":"1"}},{"base_weights":[1.5744324E-1,-6.3552606E-1,7.76952E-1,3.2696787E-2,-1.4029558E0,1.3703493E0,-8.3995074E-2,-2.161841E-1,-0E0,1.940854E-1,-2.9112602E-2],"categories":[],"categories_nodes":[],"categories_segments":[],"categories_sizes":[],"default_left":[0,0,0,0,0,0,0,0,0,0,0],"id":34,"left_children":[1,3,5,-1,7,9,-1,-1,-1,-1,-1],"loss_changes":[1.5372743E1,1.1137112E1,1.8951805E1,0E0,7.6215E0,1.5485075E1,0E0,0E0,0E0,0E0,0E0],"parents":[2147483647,0,0,1,1,2,2,4,4,5,5],"right_children":[2,4,6,-1,8,10,-1,-1,-1,-1,-1],"split_conditions":[2E0,1E0,2.134138E-1,3.2696787E-2,1E0,2.802279E-1,-8.3995074E-2,-2.161841E-1,-0E0,1.940854E-1,-2.9112602E-2],"split_indices":[59,68,74,0,58,73,0,0,0,0,0],"split_type":[0,0,0,0,0,0,0,0,0,0,0],"sum_hessian":[2.9E1,1.2E1,1.7E1,5E0,7E0,1.3E1,4E0,4E0,3E0,1E1,3E0],"tree_param":{"num_deleted":"0","num_feature":"123","num_nodes":"11","size_leaf_vector":"1"}},{"base_weights":[-2.3917642E-1,-5.537889E-1,1.8515582E-1,-9.2293763E-1,1.7341252E-1,-1.4028645E-1,4.3727275E-2],"categories":[],"categories_nodes":[],"categories_segments":[],"categories_sizes":[],"default_left":[0,0,0,0,0,0,0],"id":35,"left_children":[1,3,-1,5,-1,-1,-1],"loss_changes":[2.0776281E1,2.5282137E1,0E0,1.8551865E1,0E0,0E0,0E0],"parents":[2147483647,0,0,1,1,3,3],"right_children":[2,4,-1,6,-1,-1,-1],"split_conditions":[2.5397903E-1,3.4798035E-1,1.8515582E-1,3.5130024E-1,1.7341252E-1,-1.4028645E-1,4.3727275E-2],"split_indices":[79,112,0,75,0,0,0],"split_type":[0,0,0,0,0,0,0],"sum_hessian":[3.1E1,2.8E1,3E0,2.5E1,3E0,1.9E1,6E0],"tree_param":{"num_deleted":"0","num_feature":"123","num_nodes":"7","size_leaf_vector":"1"}},{"base_weights":[-3.4361458E-1,-8.3011967E-1,1.4930083E-1,-3.2820067E-1,-3.0076647E-1,-1.9741844E-1,1.1639455E-2],"categories":[],"categories_nodes":[],"categories_segments":[],"categories_sizes":[],"default_left":[0,0,0,0,0,0,0],"id":36,"left_children":[1,3,-1,5,-1,-1,-1],"loss_changes":[2.6488752E1,2.1907848E1,0E0,1.7455297E1,0E0,0E0,0E0],"parents":[2147483647,0,0,1,1,3,3],"right_children":[2,4,-1,6,-1,-1,-1],"split_conditions":[2.5397903E-1,3.13145E-1,1.4930083E-1,3.5E4,-3.0076647E-1,-1.9741844E-1,1.1639455E-2],"split_indices":[79,83,0,71,0,0,0],"split_type":[0,0,0,0,0,0,0],"sum_hessian":[2.8E1,2.3E1,5E0,2E1,3E0,4E0,1.6E1],"tree_param":{"num_deleted":"0","num_feature":"123","num_nodes":"7","size_leaf_vector":"1"}},{"base_weights":[7.106582E-2,-1.2916943E-1,1.9051814E-1,-6.034575E-1,1.0388398E0,-1.072436E-1,1.19314805E-1,-6.2692165E-3,1.7667212E-1],"categories":[],"categories_nodes":[],"categories_segments":[],"categories_sizes":[],"default_left":[0,0,0,0,0,0,0,0,0],"id":37,"left_children":[1,3,-1,5,7,-1,-1,-1,-1],"loss_changes":[1.4876014E1,1.7918642E1,0E0,2.1380527E1,9.030848E0,0E0,0E0,0E0,0E0],"parents":[2147483647,0,0,1,1,3,3,4,4],"right_children":[2,4,-1,6,8,-1,-1,-1,-1],"split_conditions":[3.5247943E-1,1.9213444E-1,1.9051814E-1,3.1437588E-1,1.25E5,-1.072436E-1,1.19314805E-1,-6.2692165E-3,1.7667212E-1],"split_indices":[90,102,0,114,69,0,0,0,0],"split_type":[0,0,0,0,0,0,0,0,0],"sum_hessian":[3.4E1,3.1E1,3E0,2.3E1,8E0,1.9E1,4E0,3E0,5E0],"tree_param":{"num_deleted":"0","num_feature":"123","num_nodes":"9","size_leaf_vector":"1"}},{"base_weights":[-5.360614E-2,1.4440593E-1,-1.8743013E-1,4.2094895E-1,-1.6466324E-1,6.3444965E-2,-8.22043E-2],"categories":[],"categories_nodes":[],"categories_segments":[],"categories_sizes":[],"default_left":[0,0,0,0,0,0,0],"id":38,"left_children":[1,3,-1,5,-1,-1,-1],"loss_changes":[1.4618742E1,1.5317038E1,0E0,8.029961E0,0E0,0E0,0E0],"parents":[2147483647,0,0,1,1,3,3],"right_children":[2,4,-1,6,-1,-1,-1],"split_conditions":[3.1439102E-1,4.0984213E-1,-1.8743013E-1,3.5064235E-1,-1.6466324E-1,6.3444965E-2,-8.22043E-2],"split_indices":[95,94,0,93,0,0,0],"split_type":[0,0,0,0,0,0,0],"sum_hessian":[3.4E1,3.1E1,3E0,2.8E1,3E0,2.5E1,3E0],"tree_param":{"num_deleted":"0","num_feature":"123","num_nodes":"7","size_leaf_vector":"1"}},{"base_weights":[2.359895E-3,-2.8559908E-1,1.9296418E-1,-0E0,-1.738353E-1,-1.4722052E-2,8.774662E-2],"categories":[],"categories_nodes":[],"categories_segments":[],"categories_sizes":[],"default_left":[0,0,0,0,0,0,0],"id":39,"left_children":[1,3,-1,5,-1,-1,-1],"loss_changes":[2.1064402E1,1.266235E1,0E0,3.5782871E0,0E0,0E0,0E0],"parents":[2147483647,0,0,1,1,3,3],"right_children":[2,4,-1,6,-1,-1,-1],"split_conditions":[2.5397903E-1,3.13145E-1,1.9296418E-1,3.9586654E-1,-1.738353E-1,-1.4722052E-2,8.774662E-2],"split_indices":[79,83,0,75,0,0,0],"split_type":[0,0,0,0,0,0,0],"sum_hessian":[3.3E1,2.9E1,4E0,2.5E1,4E0,2.2E1,3E0],"tree_param":{"num_deleted":"0","num_feature":"123","num_nodes":"7","size_leaf_vector":"1"}},{"base_weights":[-4.9478356E-2,1.4913775E-1,-4.1360897E-1,-7.539849E-1,1.567143E-1,-1.2689903E-1,3.7402537E-2],"categories":[],"categories_nodes":[],"categories_segments":[],"categories_sizes":[],"default_left":[0,0,0,0,0,0,0],"id":40,"left_children":[1,-1,3,5,-1,-1,-1],"loss_changes":[1.8054482E1,0E0,1.9246052E1,1.5892881E1,0E0,0E0,0E0],"parents":[2147483647,0,0,2,2,3,3],"right_children":[2,-1,4,6,-1,-1,-1],"split_conditions":[1E0,1.4913775E-1,2.4356242E-1,3.5130024E-1,1.567143E-1,-1.2689903E-1,3.7402537E-2],"split_indices":[63,0,88,75,0,0,0],"split_type":[0,0,0,0,0,0,0],"sum_hessian":[3.2E1,5E0,2.7E1,2.4E1,3E0,1.7E1,7E0],"tree_param":{"num_deleted":"0","num_feature":"123","num_nodes":"7","size_leaf_vector":"1"}},{"base_weights":[7.8423455E-2,6.6240805E-1,-1.0588555E0,1.3689449E0,-4.7764322E-1,-2.2834666E-1,-0E0,1.7838076E-1,-0E0,-1.3734579E-1,3.2507104E-3,-1.19178295E-2,6.165886E-3],"categories":[],"categories_nodes":[],"categories_segments":[],"categories_sizes":[],"default_left":[0,0,0,0,0,0,0,0,0,0,0,0,0],"id":41,"left_children":[1,3,5,7,9,-1,11,-1,-1,-1,-1,-1,-1],"loss_changes":[2.2222012E1,2.00714E1,1.3738174E1,6.891508E0,5.4985995E0,0E0,7.202113E-2,0E0,0E0,0E0,0E0,0E0,0E0],"parents":[2147483647,0,0,1,1,2,2,3,3,4,4,6,6],"right_children":[2,4,6,8,10,-1,12,-1,-1,-1,-1,-1,-1],"split_conditions":[2.6640108E-1,1.6169688E-1,3.5130024E-1,2.791964E-1,1E0,-2.2834666E-1,4E0,1.7838076E-1,-0E0,-1.3734579E-1,3.2507104E-3,-1.19178295E-2,6.165886E-3],"split_indices":[75,100,75,87,58,0,72,0,0,0,0,0,0],"split_type":[0,0,0,0,0,0,0,0,0,0,0,0,0],"sum_hessian":[3.2E1,2.2E1,1E1,1.4E1,8E0,4E0,6E0,1E1,4E0,3E0,5E0,3E0,3E0],"tree_param":{"num_deleted":"0","num_feature":"123","num_nodes":"13","size_leaf_vector":"1"}},{"base_weights":[-1.7775674E-1,-4.290521E-1,1.4385739E-1,-1.11166E-1,-2.1380487E-1,1.19484775E-2,-1.6596165E-1],"categories":[],"categories_nodes":[],"categories_segments":[],"categories_sizes":[],"default_left":[0,0,0,0,0,0,0],"id":42,"left_children":[1,3,-1,5,-1,-1,-1],"loss_changes":[1.2605346E1,1.3267828E1,0E0,1.1024364E1,0E0,0E0,0E0],"parents":[2147483647,0,0,1,1,3,3],"right_children":[2,4,-1,6,-1,-1,-1],"split_conditions":[2.5397903E-1,2.2581533E-1,1.4385739E-1,3.1439102E-1,-2.1380487E-1,1.19484775E-2,-1.6596165E-1],"split_indices":[79,83,0,95,0,0,0],"split_type":[0,0,0,0,0,0,0],"sum_hessian":[3.1E1,2.8E1,3E0,2.5E1,3E0,2.2E1,3E0],"tree_param":{"num_deleted":"0","num_feature":"123","num_nodes":"7","size_leaf_vector":"1"}},{"base_weights":[-1.8665873E-1,-3.6007285E-1,9.539654E-2,-9.311429E-2,-1.5296344E-1,3.1606298E-2,-8.079233E-2],"categories":[],"categories_nodes":[],"categories_segments":[],"categories_sizes":[],"default_left":[0,0,0,0,0,0,0],"id":43,"left_children":[1,3,-1,5,-1,-1,-1],"loss_changes":[6.474816E0,7.9137793E0,0E0,8.644272E0,0E0,0E0,0E0],"parents":[2147483647,0,0,1,1,3,3],"right_children":[2,4,-1,6,-1,-1,-1],"split_conditions":[1E0,1E0,9.539654E-2,1.7554359E-1,-1.5296344E-1,3.1606298E-2,-8.079233E-2],"split_indices":[29,7,0,93,0,0,0],"split_type":[0,0,0,0,0,0,0],"sum_hessian":[3.3E1,3E1,3E0,2.6E1,4E0,1.6E1,1E1],"tree_param":{"num_deleted":"0","num_feature":"123","num_nodes":"7","size_leaf_vector":"1"}},{"base_weights":[1.1033174E-2,1.0970666E0,-2.3390265E-1,1.8836847E-1,-0E0,-5.2040243E-1,9.307768E-2,-8.741059E-2,7.277512E-2],"categories":[],"categories_nodes":[],"categories_segments":[],"categories_sizes":[],"default_left":[0,0,0,0,0,0,0,0,0],"id":44,"left_children":[1,3,5,-1,-1,7,-1,-1,-1],"loss_changes":[9.898051E0,5.7681856E0,9.083374E0,0E0,0E0,1.093644E1,0E0,0E0,0E0],"parents":[2147483647,0,0,1,1,2,2,5,5],"right_children":[2,4,6,-1,-1,8,-1,-1,-1],"split_conditions":[1E0,2.6640108E-1,2.4356242E-1,1.8836847E-1,-0E0,3.108217E-1,9.307768E-2,-8.741059E-2,7.277512E-2],"split_indices":[68,75,88,0,0,100,0,0,0],"split_type":[0,0,0,0,0,0,0,0,0],"sum_hessian":[3.2E1,6E0,2.6E1,3E0,3E0,2.2E1,4E0,1.8E1,4E0],"tree_param":{"num_deleted":"0","num_feature":"123","num_nodes":"9","size_leaf_vector":"1"}},{"base_weights":[-0E0,-2.0509298E-1,1.6251116E-1,-4.569245E-1,1.296043E-1,-8.54837E-2,6.592308E-2],"categories":[],"categories_nodes":[],"categories_segments":[],"categories_sizes":[],"default_left":[0,0,0,0,0,0,0],"id":45,"left_children":[1,3,-1,5,-1,-1,-1],"loss_changes":[1.1825845E1,1.1094074E1,0E0,1.2750708E1,0E0,0E0,0E0],"parents":[2147483647,0,0,1,1,3,3],"right_children":[2,4,-1,6,-1,-1,-1],"split_conditions":[1E0,3.6806095E-1,1.6251116E-1,2.5817445E-1,1.296043E-1,-8.54837E-2,6.592308E-2],"split_indices":[34,86,0,73,0,0,0],"split_type":[0,0,0,0,0,0,0],"sum_hessian":[3.2E1,2.9E1,3E0,2.6E1,3E0,2E1,6E0],"tree_param":{"num_deleted":"0","num_feature":"123","num_nodes":"7","size_leaf_vector":"1"}},{"base_weights":[-3.3112794E-2,-4.1771522E-1,7.1812093E-1,-9.1628045E-1,2.7190417E-1,-0E0,1.394359E-1,-1.3720219E-1,-5.6572915E-3,-0E0,8.384748E-2],"categories":[],"categories_nodes":[],"categories_segments":[],"categories_sizes":[],"default_left":[0,0,0,0,0,0,0,0,0,0,0],"id":46,"left_children":[1,3,5,7,9,-1,-1,-1,-1,-1,-1],"loss_changes":[9.823059E0,9.145204E0,5.9927473E0,4.3708487E0,2.0728407E0,0E0,0E0,0E0,0E0,0E0,0E0],"parents":[2147483647,0,0,1,1,2,2,3,3,4,4],"right_children":[2,4,6,8,10,-1,-1,-1,-1,-1,-1],"split_conditions":[1.9213444E-1,1E0,1.25E5,2E0,1E0,-0E0,1.394359E-1,-1.3720219E-1,-5.6572915E-3,-0E0,8.384748E-2],"split_indices":[102,49,69,58,41,0,0,0,0,0,0],"split_type":[0,0,0,0,0,0,0,0,0,0,0],"sum_hessian":[3.3E1,2.3E1,1E1,1.4E1,9E0,5E0,5E0,8E0,6E0,6E0,3E0],"tree_param":{"num_deleted":"0","num_feature":"123","num_nodes":"11","size_leaf_vector":"1"}},{"base_weights":[9.6711675E-3,1.2544896E-1,-2.2170675E-1,-5.9863526E-1,1.0934702E-1,-1.0079986E-1,8.766728E-2],"categories":[],"categories_nodes":[],"categories_segments":[],"categories_sizes":[],"default_left":[0,0,0,0,0,0,0],"id":47,"left_children":[1,-1,3,5,-1,-1,-1],"loss_changes":[1.0815687E1,0E0,1.4040131E1,1.4905564E1,0E0,0E0,0E0],"parents":[2147483647,0,0,2,2,3,3],"right_children":[2,-1,4,6,-1,-1,-1],"split_conditions":[1E0,1.2544896E-1,2.5397903E-1,3.6806095E-1,1.0934702E-1,-1.0079986E-1,8.766728E-2],"split_indices":[68,0,79,86,0,0,0],"split_type":[0,0,0,0,0,0,0],"sum_hessian":[3.2E1,5E0,2.7E1,2.2E1,5E0,1.8E1,4E0],"tree_param":{"num_deleted":"0","num_feature":"123","num_nodes":"7","size_leaf_vector":"1"}},{"base_weights":[2.5471818E-1,5.212326E-1,-1.3579337E-1,8.301513E-1,-5.316747E-2,4.1841506E-4,1.3247298E-1],"categories":[],"categories_nodes":[],"categories_segments":[],"categories_sizes":[],"default_left":[0,0,0,0,0,0,0],"id":48,"left_children":[1,3,-1,5,-1,-1,-1],"loss_changes":[1.2764949E1,9.52194E0,0E0,7.652666E0,0E0,0E0,0E0],"parents":[2147483647,0,0,1,1,3,3],"right_children":[2,4,-1,6,-1,-1,-1],"split_conditions":[3.1439102E-1,2.3139344E-1,-1.3579337E-1,2E0,-5.316747E-2,4.1841506E-4,1.3247298E-1],"split_indices":[95,108,0,59,0,0,0],"split_type":[0,0,0,0,0,0,0],"sum_hessian":[2.9E1,2.6E1,3E0,2.1E1,5E0,9E0,1.2E1],"tree_param":{"num_deleted":"0","num_feature":"123","num_nodes":"7","size_leaf_vector":"1"}},{"base_weights":[8.844457E-2,2.9133773E-1,-1.2560885E-1,8.227965E-1,-4.3089727E-1,-1.1938381E-2,1.2392455E-1,-1.9078659E-1,3.264071E-2],"categories":[],"categories_nodes":[],"categories_segments":[],"categories_sizes":[],"default_left":[0,0,0,0,0,0,0,0,0],"id":49,"left_children":[1,3,-1,5,7,-1,-1,-1,-1],"loss_changes":[8.676278E0,1.2645423E1,0E0,8.722837E0,1.6744888E1,0E0,0E0,0E0,0E0],"parents":[2147483647,0,0,1,1,3,3,4,4],"right_children":[2,4,-1,6,8,-1,-1,-1,-1],"split_conditions":[3.1439102E-1,2.3982573E-1,-1.2560885E-1,2E0,2.5817445E-1,-1.1938381E-2,1.2392455E-1,-1.9078659E-1,3.264071E-2],"split_indices":[95,87,0,59,73,0,0,0,0],"split_type":[0,0,0,0,0,0,0,0,0],"sum_hessian":[3.3E1,3E1,3E0,1.8E1,1.2E1,5E0,1.3E1,4E0,8E0],"tree_param":{"num_deleted":"0","num_feature":"123","num_nodes":"9","size_leaf_vector":"1"}}]},"name":"gbtree"},"learner_model_param":{"base_score":"[2.1539934E1]","boost_from_average":"1","num_class":"0","num_feature":"123","num_target":"1"},"objective":{"name":"reg:squarederror","reg_loss_param":{"scale_pos_weight":"1"}}},"version":[3,1,2]}